-0.03148193315407146 -0.032614389639103056 -0.038091788880886795 -0.04279205610631021 -0.03677526935551936 
-0.006522193643446414 -0.014121486430222893 -0.034442432571981686 -0.018482519081311374 -0.042822785684282175 
-0.03157855036916138 -0.03578259564340191 -0.043600384708712664 -0.007928401952221255 -0.009756544358148204 
-0.03636869553228838 -0.040257366042903274 -0.009202541651154823 -0.04496485637188047 -0.02078839926243752 
-0.04099672951405654 -0.030101009024329724 -0.030145917867088 -0.038578497525871634 -0.03948929710896224 
-0.04412267941537198 5.186915818931186E-4 -0.012738572592397341 -0.04451801027999507 -0.03588897053995915 
-0.031998799638411325 -0.039565940308568866 -0.02218526908058355 0.003983679369561692 -0.04415665152489061 
-0.04406527987202857 2.7310651655589074E-4 -0.02556963703052248 -0.012822513844562034 -0.027039917950553417 
-0.009637270850293492 -6.747418856663631E-4 -0.005465558913610838 -0.0345049092246689 -0.03897570971496193 
-0.029940255902269335 -0.015221768505383926 -0.04296111581256733 -0.004186811342396868 -0.024753745179209398 
-0.02692787780220085 -0.001112114119572501 -0.0193310117696312 -0.011039917608432818 -0.044532616233831604 
-0.02560003259995484 0.0016679035510681515 -0.03034094356359485 -0.027323689471397055 -0.02529255085118139 
1.8189915818374617E-4 -0.016286146307598278 -0.02491903230998539 -0.04443643304784637 -0.011578584207624138 
-0.012509466533674535 -0.02608442333807142 0.0014957928164124443 -0.045912963383221705 -0.007176998924874145 
-0.03060470398584687 4.9414387851067796E-5 -0.04191353763819924 -0.00848499392043357 -0.03864045459765994 
-0.016764014829797065 -0.04283640676526779 -0.012231951462891048 -0.033578556043257074 -0.020036948551499085 
-0.016966864071528934 -3.018379725281868E-5 -0.04303602169629848 -0.014679971090984227 -0.012769143581130545 
-0.0359879080496683 -0.04303156854892359 0.0030974955076658135 -0.021221745157614325 -0.009989830770563434 
-0.0035215567837358053 -0.015001576375955538 -0.040909657530591746 0.002413940983415414 -0.028644135192463067 
-0.030831600887431733 -0.025818778754307846 -0.0028909461260295376 -0.007946773563915807 -0.03231655625876259 
-0.022746373709149753 -0.005361481329715045 -0.04229913302109772 -0.019169100879125475 -0.005965177025327477 
-0.04489522463456222 -0.038264930999874595 -0.024658446476042543 -0.004068407538065067 -0.03523619368000453 
-0.012280155713465055 -0.03772066594641591 -0.03430047748352082 -0.04151338159190106 -0.01872842942527402 
-0.01128860852652509 -0.03557684550537196 0.0031124112074163014 -0.026086884301574697 -0.015575836171396336 
-0.014626755851397586 -0.010100583152378254 -0.0030447878724604396 0.0015892194049636997 0.0019513062909312796 
-0.011219035942676533 -0.04477036227788863 -0.015094289409550245 -0.042995929054662256 -0.012475297562331273 
-0.0012434355352519992 -0.0068422492987234625 -0.007828083170508657 -0.003188470262021585 -0.02847907593889743 
-0.040403589446376134 -0.001476020548668774 -0.02435583981512407 -0.023612313521267664 -0.01531709737119896 
-0.001293969317419034 -0.004969481556679853 -0.02698861051514279 -0.028677698103505282 0.0014514247208237045 
-0.017082734121575193 -0.011007620397318318 -0.010354718156578933 -0.016383314446213586 -6.067825166068283E-5 
-0.029357776482374552 -0.04216981278130536 -1.0021670366748081E-4 -0.003117339796357496 -0.021153830553696063 
-0.029716531855406278 0.0029035316646237883 -0.02584320122476988 -0.005339404221201807 -0.0018651578025005282 

0.12033537840776819 0.11673061384257549 0.12980631510832336 0.11298942195461506 0.15212355530694377 0.11865399795587664 0.13272143685616875 0.16069243076852838 0.15810431005981712 0.12409307481195907 0.1424443323547083 0.1470183006211014 0.14967801710806555 0.11587224519164549 0.12832920896338268 0.12130093283250513 0.12863398129536374 0.1558243612889182 0.1613787076117232 0.12209142466184184 0.15190097228090874 0.14029272856126873 0.14816931460119448 0.14591965707313853 0.14134762850321483 0.12695172766968052 0.11630868460167629 0.11581443694714069 0.14797902806911067 0.12889019172810834 0.15661730756918837 0.1553875332699171 
-0.1531955362884439 -0.13792596174627675 -0.150399271371532 -0.14700559188943008 -0.14712221108215673 -0.11373747761769108 -0.15742639909229036 -0.12186526264973455 -0.12936565877930764 -0.14533167423733415 -0.12177609737231065 -0.11234464874704628 -0.15120248943861525 -0.1509740493076375 -0.1495606958320681 -0.1339848535228676 -0.1421736050509836 -0.15307323502983627 -0.12716669225119037 -0.11531421141976426 -0.11557287710113383 -0.15844463253335614 -0.1325913758772339 -0.15862695195762014 -0.16276487166612957 -0.11205899647506495 -0.12871800754152832 -0.1137379516479713 -0.12449020157797444 -0.1449849448386886 -0.14738874556911435 -0.12449888708136626 
